{"conv1_kernel": [[[0.7726064324378967, -0.609552264213562, -0.31729111075401306, 0.7848504781723022, -0.37207937240600586, -0.1714312583208084, -0.1547251045703888, -0.29621031880378723]], [[0.6620410084724426, -0.024893466383218765, -0.17883943021297455, 0.6608014106750488, -0.35591360926628113, -0.27781015634536743, -0.10284394025802612, 0.16901469230651855]], [[0.5234320163726807, -0.015145513229072094, 0.013223212212324142, 0.664954662322998, 0.20763801038265228, -0.15660297870635986, 0.3207437992095947, -0.35060200095176697]], [[0.30088260769844055, 0.5173701047897339, -0.06271471083164215, 0.03926366567611694, 0.27558034658432007, -0.29379212856292725, 0.5811839699745178, 0.16619595885276794]], [[0.4667869806289673, 0.2521994113922119, 0.5811078548431396, 0.41569796204566956, 0.34599390625953674, -0.29986491799354553, 0.648926854133606, -0.34915611147880554]]], "conv1_bias": [0.02004416473209858, 0.2751995623111725, 0.10999298840761185, 0.13826313614845276, 0.24767790734767914, -0.3769247531890869, 0.11690783500671387, -0.1542353481054306], "conv2_kernel": [[[-0.15234512090682983, 0.14543746411800385, -0.18608012795448303, 0.3112959861755371, -0.35146570205688477, -0.10897169262170792, 0.33448320627212524, 0.3459106981754303, 0.03769361972808838, -0.24894365668296814, 0.2011265903711319, 0.06820839643478394, -0.4736354351043701, 0.027952000498771667, 0.4293937683105469, 0.003998063039034605], [0.29106220602989197, -0.2786937952041626, 0.3920556902885437, 0.004487620200961828, 0.7123597264289856, 0.3886581361293793, 0.3401811718940735, 0.5023243427276611, -0.7153882384300232, 0.5560675859451294, 0.27787265181541443, 0.5554996728897095, 0.29076436161994934, -0.292214959859848, -0.2863478362560272, 0.3413451313972473], [0.37018275260925293, -0.28893226385116577, 0.46428626775741577, 0.0585598461329937, 0.3757989704608917, 0.6112969517707825, -0.09044556319713593, 0.3123306334018707, 0.20456135272979736, 0.337499737739563, 0.31969693303108215, 0.10496080666780472, 0.6818478107452393, 0.3417362868785858, 0.06082020699977875, 0.22295527160167694], [-0.31687507033348083, 0.5972375273704529, 0.22478054463863373, 0.11061520129442215, -0.48886963725090027, -0.3362559974193573, 0.13941290974617004, 0.26575812697410583, 0.07943443208932877, -0.3320085108280182, 0.45931315422058105, 0.05145501717925072, -0.5328826308250427, -0.060975924134254456, 0.40905073285102844, 0.15092672407627106], [-0.03346361219882965, -0.5412046909332275, 0.19095741212368011, -0.02002115547657013, 0.6931363344192505, 0.45195770263671875, -0.03573917597532272, -0.06597523391246796, -0.7996004819869995, 0.30634385347366333, 0.12537474930286407, 0.4311594069004059, 0.4178185760974884, -0.3212861120700836, 0.08473903685808182, 0.3634728491306305], [0.05869459733366966, -0.0378076396882534, 0.10600250214338303, -0.19257418811321259, 0.3655376434326172, 0.24663063883781433, -0.24525631964206696, -0.1964038759469986, 0.25056344270706177, 0.012132013216614723, -0.0467456690967083, 0.026637237519025803, 0.3321637511253357, 0.2779315710067749, -0.15005028247833252, 0.27436164021492004], [-0.36880916357040405, 0.0018285064725205302, 0.17994506657123566, 0.26947078108787537, -0.16588462889194489, 0.2257564663887024, 0.1882084459066391, -0.014370587654411793, -0.707520067691803, 0.41097891330718994, 0.12553678452968597, 0.027674583718180656, -0.3557453751564026, 0.014683377929031849, 0.06562524288892746, 0.21329809725284576], [0.16026748716831207, -0.3184780776500702, 0.25627604126930237, 0.06187554821372032, 0.13781964778900146, 0.14314110577106476, 0.04931071400642395, 0.04325379431247711, 0.08917829394340515, -0.3035244941711426, 0.09151717275381088, 0.15713228285312653, -0.12154735624790192, 0.2722140848636627, -0.1398342251777649, -0.14498300850391388]], [[-0.4036390781402588, -0.13739067316055298, -0.06988923996686935, -0.0778929814696312, 0.12922023236751556, -0.29411593079566956, 0.22496189177036285, 0.2424347847700119, -0.49839839339256287, -0.08898308128118515, 0.22910171747207642, 0.10345158725976944, -0.27134454250335693, -0.3694932758808136, -0.0247335322201252, -0.17119768261909485], [0.7903475165367126, 0.4149368107318878, 0.43754154443740845, -0.4525578022003174, 0.025283332914114, 0.5182557106018066, 0.5351471304893494, 0.27960413694381714, 0.49382758140563965, 0.30416351556777954, -0.640848696231842, 0.3934299647808075, 0.4740283191204071, 0.23977863788604736, 0.008456389419734478, 0.24774156510829926], [0.9890498518943787, -0.02635524421930313, 0.035015419125556946, -0.5168232321739197, 0.2604561150074005, -0.02485676109790802, 0.2517162561416626, 0.018496474251151085, 0.6506026387214661, 0.0907142162322998, -0.6286770105361938, 0.0372575968503952, 0.8623046278953552, 0.35132473707199097, 0.30699336528778076, 0.512285590171814], [-0.1114763543009758, -0.16696438193321228, -0.2581692337989807, -0.031099598854780197, 0.1448458880186081, 0.07917263358831406, 0.2090979516506195, -0.1650940626859665, -0.4799477756023407, 0.10363640636205673, 0.3248364329338074, 0.14334630966186523, -0.1631164848804474, -0.1237703263759613, -0.19253340363502502, 0.02477446012198925], [0.5232561826705933, 0.4435056149959564, 0.36335834860801697, 0.03384546563029289, 0.5523622632026672, 0.5011616945266724, 0.16806969046592712, 0.12501248717308044, 0.1050671860575676, 0.45935332775115967, -0.4363951086997986, 0.22634132206439972, 0.8818798661231995, 0.3174893260002136, 0.09831007570028305, 0.600872278213501], [0.23652981221675873, -0.07539262622594833, 0.10010218620300293, 0.019587168470025063, -0.01357938814908266, -0.1800844371318817, 0.1533234715461731, -0.07836469262838364, -0.0766027495265007, -0.35085970163345337, 0.3879047930240631, -0.21767280995845795, -0.15800508856773376, 0.08612725138664246, -0.049945030361413956, -0.2119828462600708], [0.22495965659618378, 0.09729012846946716, -0.14829105138778687, 0.01019152533262968, 0.2227930873632431, -0.09364644438028336, 0.1529262810945511, 0.16474269330501556, 0.012187783606350422, 0.3067457675933838, 0.008485011756420135, 0.337960809469223, 0.22592253983020782, 0.1461530178785324, -0.08120668679475784, 0.012281903065741062], [0.16852448880672455, 0.11379729956388474, 0.183966264128685, 0.21051369607448578, -0.07289530336856842, -0.23695839941501617, -0.10198375582695007, 0.17277953028678894, 0.3317554295063019, -0.16505980491638184, 0.2539132833480835, -0.04571286961436272, 0.20043765008449554, -0.3069007098674774, 0.09569958597421646, 0.21462714672088623]], [[0.21824410557746887, -0.3220639228820801, 0.19125735759735107, 0.26594191789627075, -0.049409929662942886, 0.07348141074180603, -0.0655486136674881, 0.03981979191303253, 0.5210355520248413, -0.26209086179733276, -0.551594078540802, 0.22266122698783875, 0.46197009086608887, 0.28417402505874634, 0.07564757764339447, 0.183415487408638], [0.44131067395210266, -0.025999771431088448, -0.15693405270576477, -0.41732510924339294, 0.2964760363101959, 0.21370135247707367, 0.5286268591880798, -0.3109019994735718, 0.4968601167201996, -0.2507045865058899, -0.3547041416168213, -0.3099578320980072, 0.43092581629753113, 0.22429277002811432, 0.06480773538351059, 0.6063963770866394], [0.6811619997024536, -0.20735110342502594, 0.3264690041542053, -0.5959003567695618, -0.3773220181465149, -0.22238366305828094, 0.5563853979110718, -0.004744061268866062, 0.4802928566932678, 0.10861866176128387, 0.15049362182617188, -0.3714984655380249, 0.44377079606056213, 0.5312027335166931, -0.0731053277850151, 0.592271625995636], [0.19560587406158447, -0.46489688754081726, 0.19440867006778717, -0.09959423542022705, 0.08148777484893799, -0.01206123735755682, 0.21385374665260315, -0.22607368230819702, 0.18253959715366364, 0.17627565562725067, -0.47050023078918457, 0.3428070545196533, -0.05458974093198776, 0.31569182872772217, 0.2216392159461975, -0.041943952441215515], [0.260366290807724, -0.07820839434862137, 0.14732757210731506, -0.972051739692688, -0.047523342072963715, 0.04556824639439583, 0.25322890281677246, -0.11741114407777786, 0.2634980380535126, -0.34481868147850037, -0.30530282855033875, -0.08161941170692444, 0.3139154016971588, 0.2704921364784241, 0.27011024951934814, 0.3580705523490906], [-0.622078537940979, 0.14482153952121735, -0.47170543670654297, 0.5211754441261292, -0.5618262887001038, -0.2524614930152893, -0.11395083367824554, 0.04624712094664574, 0.3004901707172394, -0.3050501346588135, 0.07109235972166061, 0.09393753856420517, -0.1515268236398697, -0.347099632024765, 0.2811330258846283, -0.31259292364120483], [0.1334814578294754, -0.6442382335662842, -0.13927671313285828, -0.36347004771232605, -0.05781173333525658, 0.16337984800338745, 0.3378283381462097, 0.017461396753787994, 0.5503825545310974, -0.24638736248016357, -0.5773324370384216, -0.1827886551618576, 0.4065179228782654, -0.016731075942516327, -0.012085937894880772, -0.04284355789422989], [-0.4613073170185089, 0.02568008378148079, -0.2851562201976776, 0.2982403039932251, -0.44700324535369873, -0.006483577657490969, 0.012446397915482521, -0.012926678173244, 0.04560963436961174, 0.11750932782888412, 0.041186217218637466, -0.25184088945388794, -0.4263511002063751, 0.049973130226135254, -0.04559628665447235, -0.16421131789684296]]], "conv2_bias": [0.07172394543886185, 0.14105860888957977, -0.0024739590007811785, -0.07403554767370224, 0.36538639664649963, 0.019920263439416885, -0.01970389485359192, 0.03845304995775223, -0.13531005382537842, 0.40348464250564575, -0.0397217832505703, 0.05568159371614456, 0.058882907032966614, -0.1085100769996643, -0.16237664222717285, 0.04243085905909538], "dense_kernel": [[0.08990446478128433], [0.1078404113650322], [0.029239024966955185], [-0.14144167304039001], [0.046135883778333664], [0.0430423729121685], [0.006244801916182041], [-0.04954893887042999], [-0.8715854287147522], [-0.07496405392885208], [-0.03761651739478111], [0.0025816226843744516], [0.047037769109010696], [0.10736893117427826], [-0.15764468908309937], [0.026391712948679924], [-0.017628805711865425], [-0.3198651075363159], [-0.09972576797008514], [-0.29810506105422974], [-0.04472444951534271], [0.0006275122286751866], [-0.10033571720123291], [-0.1934431940317154], [0.0032056912314146757], [0.3972490429878235], [-0.4888315498828888], [-0.07552535831928253], [0.06835519522428513], [-0.01020017545670271], [-0.1289108693599701], [-0.0821383073925972], [-0.023576244711875916], [0.02135111391544342], [-0.019846538081765175], [0.04056200012564659], [0.10906132310628891], [-0.0116489352658391], [-0.06661053001880646], [-0.0320773683488369], [0.021397555246949196], [0.09715642035007477], [-0.030100379139184952], [0.004639198072254658], [0.08919048309326172], [-0.03620663285255432], [-0.02366923913359642], [-0.02506904862821102], [-0.042297251522541046], [-0.1408478170633316], [-0.050322454422712326], [-0.04972013458609581], [0.028067348524928093], [-0.05081228166818619], [-0.08236917853355408], [-0.07669328153133392], [0.10408727824687958], [0.02624785713851452], [-0.23998020589351654], [-0.06009388715028763], [-0.042363326996564865], [0.0006990874535404146], [-0.04313220828771591], [-0.04240112006664276], [0.03439028933644295], [-0.04836038127541542], [-0.01584569551050663], [0.09610451012849808], [-0.05004071816802025], [-0.02496558614075184], [-0.0642772987484932], [0.03520037606358528], [0.13271407783031464], [0.08577091991901398], [0.05781177431344986], [-0.027928395196795464], [0.01164318434894085], [0.02479836717247963], [0.019676363095641136], [-0.08296947926282883], [-0.00839564111083746], [-0.2552385926246643], [-0.03967016190290451], [0.04960886761546135], [0.032487526535987854], [-0.027528924867510796], [-0.026258058845996857], [0.01011679507791996], [0.01707870326936245], [0.028490452095866203], [-0.1286395788192749], [-0.0056837173178792], [-0.1319725215435028], [0.0552062913775444], [-0.007298171520233154], [-0.019689226523041725], [-0.008638543076813221], [-0.1552744358778], [0.006211589556187391], [0.05738241598010063], [0.012422206811606884], [0.05506642535328865], [-0.0382884256541729], [0.05195833370089531], [-0.0407307967543602], [0.0033379902597516775], [-0.07139794528484344], [0.004293512087315321], [-0.054733820259571075], [-0.01870092749595642], [-0.002528493758291006], [-0.02009868621826172], [0.004454813431948423], [-0.2947765290737152], [0.01773207262158394], [0.00021140105673111975], [-0.05567968264222145], [0.025569172576069832], [0.015179833397269249], [-0.015100805088877678], [-0.07057279348373413], [-0.10190781950950623], [-0.04618681222200394], [0.0024455590173602104], [-0.09250640124082565], [0.016206704080104828], [0.05932203680276871], [-0.04982190206646919], [-0.08848869800567627], [-0.17348721623420715], [-0.05640961229801178], [0.0374765619635582], [-0.08287280797958374], [-0.060993779450654984], [-0.016037173569202423], [0.044239867478609085], [0.04840082302689552], [-0.10949160903692245], [-0.020415738224983215], [0.001430748263373971], [-0.13669413328170776], [-0.0030976368580013514], [0.07046926021575928], [-0.07855232059955597], [-0.04327026754617691], [-0.25138843059539795], [-0.008630283176898956], [-0.025108391419053078], [-0.056327857077121735], [0.028323063626885414], [0.03029825910925865], [0.06394296139478683], [-0.14989440143108368], [0.08881815522909164], [-0.0780692920088768], [0.04383328557014465], [-0.0801989883184433], [0.005090607330203056], [0.09267231822013855], [0.027789028361439705], [0.03790793940424919], [-0.2719438374042511], [0.04465172067284584], [-0.08095037192106247], [0.025443779304623604], [-0.008202539756894112], [0.023197723552584648], [0.046901948750019073], [-0.10803163796663284], [0.02155410870909691], [-0.09765572845935822], [0.07913549989461899], [-0.06126822903752327], [0.018713561818003654], [0.05782520771026611], [0.06623772531747818], [0.04334650933742523], [-0.06386131793260574], [-0.04747634753584862], [0.02117816172540188], [0.007287490647286177], [0.04243892803788185], [-0.002755587687715888], [-0.021594082936644554], [0.0036954921670258045], [0.1672181636095047], [0.02701721154153347], [0.0355965681374073], [0.07635758072137833], [0.0123084532096982], [0.0468788668513298], [-0.03757491707801819], [-0.07907184213399887], [-0.2580625116825104], [-0.019639581441879272], [-0.05841071903705597], [-0.04506002366542816], [-0.02654816396534443], [-0.024050524458289146], [-0.05925945192575455], [0.13293983042240143], [-0.03513466566801071], [0.08391841500997543], [-0.02400340884923935], [0.014535745605826378], [0.054741472005844116], [0.014623812399804592], [-0.047087594866752625], [-0.06674116849899292], [-0.028724344447255135], [-0.030773676931858063], [0.06472049653530121], [0.02331632189452648], [0.0017571813659742475], [-0.04021947830915451], [-0.09125632047653198], [0.06495983898639679], [0.028271906077861786], [0.05185237526893616], [0.004494600463658571], [-0.04471023380756378], [-0.08593624085187912], [-0.07535959780216217], [-0.05556613579392433], [0.03862417861819267], [0.052193306386470795], [-0.00803335290402174], [-0.08447371423244476], [0.12409023195505142], [-0.016380412504076958], [-0.05796169862151146], [-0.058282386511564255], [0.21875733137130737], [0.30798575282096863], [0.027621928602457047], [-0.030024582520127296], [0.21230478584766388], [-0.012651202268898487], [-0.13264508545398712], [-0.0016246531158685684], [-0.19446267187595367], [0.05313081294298172], [-0.12565253674983978], [-0.042472247034311295], [-0.039091408252716064], [-0.1379629522562027], [-0.10998599231243134], [0.018404366448521614], [-0.12588636577129364], [0.2104252576828003], [0.04229717701673508], [-0.07903469353914261], [-0.08697272092103958], [-0.17130319774150848], [-0.07040801644325256], [-0.19505327939987183], [0.17444606125354767], [-0.255454421043396], [0.10417644679546356], [0.07481648027896881], [0.22804708778858185], [0.08485151082277298], [0.034152813255786896], [0.03377053886651993], [0.16159749031066895], [0.37337180972099304], [0.10989122837781906], [0.1219046488404274], [0.36987942457199097], [0.14196062088012695], [-0.08950228989124298], [0.13417628407478333], [-0.370557963848114], [0.4675977826118469], [-0.42551812529563904], [0.24262003600597382], [-0.5475491881370544], [-0.32241106033325195], [-0.17932574450969696], [-0.02790142595767975], [0.1003740057349205], [-0.3583926558494568], [0.2703739106655121], [-0.3932017385959625], [-0.376806378364563], [-0.235902339220047], [-0.03254231438040733], [-0.4638533294200897], [-0.08893489837646484], [-0.5000799894332886], [-0.07435688376426697], [0.1302177906036377], [-0.1058940663933754], [-0.04533262550830841], [-0.21484212577342987], [-0.08876852691173553], [0.189248725771904], [0.008602823130786419], [0.34818172454833984], [-0.050837114453315735], [0.042090076953172684], [0.034879282116889954], [-0.1592915803194046], [-0.2217705398797989], [-0.11311701685190201], [0.22993162274360657], [-0.15404029190540314], [0.15251055359840393], [-0.1616009622812271], [-0.10336554050445557], [-0.11791221052408218], [-0.07088936120271683], [0.17539925873279572], [0.06842350214719772], [0.21302397549152374], [-0.12921611964702606], [0.06321228295564651], [-0.00907169934362173], [0.013148550875484943], [-0.2197718471288681], [-0.026720577850937843], [-0.16277317702770233], [-0.07188551872968674], [0.0009001384023576975], [-0.10088606178760529], [-0.029305821284651756], [-0.06553713232278824], [-0.16110876202583313], [0.16536231338977814], [-0.021410245448350906], [0.21028202772140503], [-0.15138019621372223], [0.04737038165330887], [-0.041684944182634354], [-0.014751526527106762], [-0.08644536882638931], [-0.04915129020810127], [0.038811516016721725], [-0.015512106940150261], [0.051111556589603424], [0.002579144202172756], [-0.04810540750622749], [-0.09029335528612137], [-0.027894699946045876], [0.05863269791007042], [-0.015427264384925365], [0.20755928754806519], [-0.03898431733250618], [0.0291275791823864], [0.0020002564415335655], [-0.02800029143691063], [-0.0158994123339653], [0.0028898168820887804], [-0.11584936082363129], [-0.01831885613501072], [-0.08468528836965561], [-0.020485075190663338], [-0.037481095641851425], [-0.07716284692287445], [-0.0622066855430603], [0.10251729935407639], [-0.000611994240898639], [0.09707232564687729], [0.007712789811193943], [-0.016698628664016724], [-0.02602163888514042], [-0.011946096085011959], [-0.041183121502399445], [0.10237462818622589], [0.07112321257591248], [0.01815752126276493], [-0.0030590365640819073], [0.05566028878092766], [0.031232837587594986], [-0.06562387943267822], [0.02848551794886589], [0.1729682981967926], [0.08726334571838379], [0.10354773700237274], [-0.01949184201657772], [0.3239094018936157], [0.00667467201128602], [-0.04299420863389969], [-0.012349650263786316], [-0.023851219564676285], [-0.07084312289953232], [0.009537980891764164], [0.021795228123664856], [0.0858941450715065], [-0.01364204566925764], [-0.01885811984539032], [0.023828253149986267], [-0.021267497912049294], [0.28378379344940186], [0.13002632558345795], [0.014093954116106033], [0.06638401001691818], [-0.02070729434490204], [-0.07610490173101425], [-0.017917543649673462], [-0.028519410640001297], [-0.07559784501791], [-0.026499556377530098], [-0.033074162900447845], [-0.06390125304460526], [-0.04566890746355057], [-0.04985378682613373], [-0.08092854917049408], [0.11645802110433578], [0.15379290282726288], [0.005348804406821728], [-0.02601601928472519], [0.1721687763929367], [0.006739680655300617], [-0.06375987827777863], [-0.09355930984020233], [0.026442207396030426], [0.022788293659687042], [-0.032500069588422775], [-0.0845550075173378], [0.026326781138777733], [-0.028131699189543724], [0.008811021223664284], [0.050966471433639526], [0.03001682087779045], [0.23575574159622192], [-0.008936642669141293], [-0.04674757272005081], [0.05764080211520195], [0.045801062136888504], [-0.039489079266786575], [0.017182912677526474], [-0.019783569499850273], [-0.09319207072257996], [0.039473757147789], [-0.02617533504962921], [0.04123993217945099], [0.0353168249130249], [0.0046200924552977085], [0.047021713107824326], [0.03265850245952606], [0.13596060872077942], [0.0753658264875412], [0.02080339565873146], [0.012137243524193764], [0.014012862928211689], [-0.017680631950497627], [0.017888152971863747], [0.03769584372639656], [0.09309966117143631], [0.002974326955154538], [-0.007779246661812067], [0.12607689201831818], [0.06140546500682831], [-0.01909763365983963], [0.013874590396881104], [0.10252579301595688], [0.2323945313692093], [0.11157026886940002], [0.023126691579818726], [0.2998809218406677], [0.01703927293419838], [-0.06758085638284683], [0.05546959489583969], [-0.045782655477523804], [0.039609670639038086], [-0.07724066823720932], [-0.06312389671802521], [0.031547896564006805], [0.010760714299976826], [-0.07599209994077682], [0.053090810775756836], [0.003792878007516265], [0.25610843300819397], [0.055084243416786194], [-0.016125282272696495], [0.11182402074337006], [-0.05815587565302849], [-0.06028403341770172], [-0.026836588978767395], [0.010933900251984596], [-0.006495723035186529], [-0.056221652776002884], [-0.018399372696876526], [-0.03125717118382454], [-0.032268062233924866], [-0.10617759823799133], [-0.11219082772731781], [0.06765056401491165], [-0.10063111037015915], [-0.028114158660173416], [-0.09890091419219971], [0.03301972895860672], [0.028104538097977638], [-0.10413286089897156], [-0.0731085017323494], [-0.028724392876029015], [0.13730134069919586], [-0.07645627856254578], [-0.05341166630387306], [0.051807764917612076], [-0.019888386130332947], [-0.07621022313833237], [-0.030432533472776413], [-0.041353750973939896], [0.1593141257762909], [0.23007693886756897], [-0.06658481061458588], [0.028883788734674454], [-0.015576989389955997], [-0.10925056040287018], [-0.059104081243276596], [0.11760153621435165], [0.09755068272352219], [0.015242333523929119], [-0.1572117656469345], [0.12408158928155899], [0.029175538569688797], [-0.03573662042617798], [-0.1590767353773117], [0.05302240699529648], [0.08742501586675644], [-0.03841665759682655], [-0.10615050792694092], [0.3504652976989746], [0.07090280205011368], [-0.01869134232401848], [0.08712752163410187], [0.15803350508213043], [0.29501041769981384], [0.01534400973469019], [-0.04013949632644653], [0.15720851719379425], [0.07969508320093155], [0.05261440947651863], [0.011759454384446144], [-0.06039673089981079], [0.3255870044231415], [-0.06649167090654373], [0.05319293960928917], [0.301313579082489], [0.0627589300274849], [-0.03924642503261566], [0.12433827668428421], [-0.01559628639370203], [-0.14472892880439758], [-0.08084166795015335], [-0.05871288478374481], [-0.19308798015117645], [-0.11098385602235794], [-0.09162475168704987], [-0.11743517220020294], [0.076205775141716], [0.020472286269068718], [-0.1039210706949234], [-0.10342244058847427], [-0.08532354235649109], [0.03217034786939621], [-0.03195040673017502], [-0.08467180281877518], [-0.11610251665115356], [0.14349760115146637], [-0.10991985350847244], [0.11004364490509033], [-0.2624518871307373], [-0.08265617489814758], [-0.07756148278713226], [-0.0506470613181591], [0.152469202876091], [-0.011560245417058468], [0.15150438249111176], [-0.04282108321785927], [-0.12025987356901169], [-0.027574744075536728], [0.07221070677042007], [-0.25473570823669434], [-0.05009143427014351], [0.06724774837493896], [0.07427812367677689], [0.27609705924987793], [-0.0032701122108846903], [-0.013545487076044083], [-0.05453535541892052], [-0.11421412229537964], [0.2280898094177246], [-0.08031181991100311], [0.24030153453350067], [-0.06648202240467072], [0.010166685096919537], [0.05298053100705147], [-0.06183066591620445], [-0.03173170983791351], [0.04072003811597824], [0.10155213624238968], [0.008118252269923687], [-0.003403434995561838], [-0.015313765965402126], [-0.02595713548362255], [-0.08526896685361862], [-0.005319502204656601], [0.08807093650102615], [0.10720793157815933], [0.06410752236843109], [-0.01809660717844963], [0.1141248419880867], [0.04687708988785744], [-0.03465713933110237], [-0.04083213582634926], [0.021844366565346718], [-0.09252981841564178], [0.02285427786409855], [0.07856342196464539], [-0.054245397448539734], [-0.04219213128089905], [-0.03592280298471451], [-0.1314590722322464], [0.07134106755256653], [-0.01829727366566658], [0.02855430543422699], [-0.07169748842716217], [0.04117586463689804], [-0.022011781111359596], [-0.08533620834350586], [-0.044422317296266556], [0.08387649804353714], [0.1408878117799759], [0.030618105083703995], [0.020058143883943558], [0.11629190295934677], [0.02559741400182247], [0.021106045693159103], [0.01854734681546688], [0.12180108577013016], [-0.04753383621573448], [0.14508920907974243], [0.020267663523554802], [0.15076880156993866], [0.07719836384057999], [-0.03420046344399452], [0.09709936380386353], [0.05710739269852638], [-0.07856564968824387], [-0.006975079886615276], [-0.021143686026334763], [-0.10401210188865662], [0.016825441271066666], [0.020727071911096573], [-0.028810327872633934], [0.0431327298283577], [0.08953608572483063], [-0.07455461472272873], [-0.026274556294083595], [0.044600896537303925], [0.02104894258081913], [0.037231411784887314], [0.019669529050588608], [-0.0409756600856781], [0.13001039624214172], [-0.046296507120132446], [-0.05802585929632187], [0.07293045520782471], [-0.04609886556863785], [-0.0916287824511528], [0.009714413434267044], [0.019134152680635452], [0.03306683897972107], [0.07376620173454285], [-0.06458617746829987], [0.08508610725402832], [-0.051783010363578796], [-0.041899293661117554], [-0.0359596312046051], [-0.01955944113433361], [0.02435319498181343], [0.010502147488296032], [-0.004127275198698044], [-0.05465720221400261], [-0.0664723590016365], [-0.048749566078186035], [-0.015663422644138336], [-0.12531951069831848], [0.009198990650475025], [-0.10986940562725067], [-0.019884729757905006], [0.0014726025983691216], [-0.06463570892810822], [-0.10852175951004028], [0.020920317620038986], [0.0013289899798110127], [-0.0652923509478569], [-0.037538327276706696], [-0.015425288118422031], [-0.05695291981101036], [-0.05964871123433113], [0.02121245115995407], [0.0062788682989776134], [0.054504889994859695], [0.028928259387612343], [-0.05756501480937004], [0.03314905986189842], [0.07193515449762344], [-0.024870939552783966], [-0.0365370512008667], [0.03145526722073555], [-0.021558722481131554], [0.007455808576196432], [-0.030374547466635704], [-0.0005036554066464305], [-0.058468110859394073], [-0.07411816716194153], [-0.016102060675621033], [-0.019339844584465027], [0.0798780620098114], [0.06807669997215271], [0.021050941199064255], [-0.0314980186522007], [-0.0253615602850914], [-0.005822685547173023], [0.015226880088448524], [-0.06888193637132645], [0.0957365557551384], [-0.09523419290781021], [0.038189847022295], [-0.015387644991278648], [0.07486088573932648], [0.05947014316916466], [0.035836655646562576], [0.015391562134027481], [0.008526705205440521], [0.05369200184941292], [-0.10273222625255585], [-0.012484573759138584], [0.03213851526379585], [0.033576808869838715], [-0.0685826912522316], [0.04923157021403313], [-0.13640005886554718], [0.2915762960910797], [-0.08050225675106049], [0.011637518182396889], [-0.0790368989109993], [-0.10728563368320465], [-0.08301635831594467], [-0.025469418615102768], [-0.13384900987148285], [0.11413141340017319], [0.012296275235712528], [-0.054121438413858414], [-0.2543575167655945], [-0.15345261991024017], [-0.08388342708349228], [-0.11860111355781555], [0.1492788940668106], [-0.0688338652253151], [0.089426688849926], [-0.0542454831302166], [0.1886640042066574], [0.08164003491401672], [0.06133224815130234], [0.0010824550408869982], [0.14812146127223969], [0.19832341372966766], [-0.09888220578432083], [0.008020428009331226], [0.296987920999527], [0.12484722584486008], [-0.018541401252150536], [0.07090476900339127], [-0.04905509576201439], [0.2972075045108795], [0.024854321032762527], [0.01721138507127762], [0.04892338812351227], [0.027154527604579926], [0.04136457294225693], [0.04312989115715027], [-0.05010182410478592], [0.16728848218917847], [0.055572859942913055], [0.05437011644244194], [-0.10646092891693115], [-0.007924569770693779], [0.04235553741455078], [-0.004137010779231787], [0.19489482045173645], [0.05029863864183426], [0.1375274509191513], [-0.1389373242855072], [0.24465158581733704], [0.15851491689682007], [0.13005220890045166], [0.039068859070539474], [0.04309482127428055], [0.23105715215206146], [-0.07903381437063217], [0.12509885430335999], [0.3446657359600067], [0.06589801609516144], [0.0891742929816246], [0.27229171991348267], [0.004415577743202448], [0.13309451937675476], [0.002805931493639946], [-0.03007870726287365], [0.0838102325797081], [0.08417978882789612], [0.0782637968659401], [0.09573685377836227], [-0.16683946549892426], [0.15786780416965485], [-0.2012930065393448], [0.09307658672332764], [-0.042234618216753006], [0.028705062344670296], [0.07228744775056839], [0.10989833623170853], [0.057950135320425034], [0.24597541987895966], [-0.02659539505839348], [-0.0036385580897331238], [-0.0019831820391118526], [-0.041986871510744095], [-0.08537503331899643], [0.015575003810226917], [0.0889011099934578], [0.08478005230426788], [0.06643294543027878], [-0.08763161301612854], [0.07307619601488113], [-0.0488998182117939], [-0.00574435293674469], [-0.059031832963228226], [-0.018515605479478836], [0.27063506841659546], [0.08819850534200668], [0.07167845964431763], [0.02863205038011074], [0.0060923281125724316], [-0.009884784929454327], [0.0033879748079925776], [-0.07922101765871048], [-0.009733418934047222], [0.05159597098827362], [0.010713409632444382], [-0.2111126333475113], [-0.007992302067577839], [0.006375198718160391], [0.043197013437747955], [-0.06529982388019562], [-0.10163678228855133], [-0.03645254299044609], [0.07908930629491806], [-0.10760325938463211], [-0.11700817197561264], [-0.14799492061138153], [-0.1093517616391182], [0.0007038837065920234], [-0.05861657112836838], [-0.034452885389328], [-0.1252877116203308], [-0.04492369666695595], [-0.05862879380583763], [-0.10168145596981049], [-0.1729321926832199], [-0.026221988722682], [0.19373054802417755], [0.012512222863733768], [0.11401825398206711], [-0.04823470115661621], [-0.014695724472403526], [-0.05383333936333656], [-0.01753649301826954], [0.023618778213858604], [0.02587929554283619], [0.12715107202529907], [-0.008736883290112019], [-0.09162812680006027], [-0.0026579760015010834], [-0.05128912255167961], [-0.046441443264484406], [-0.09567824751138687], [-0.03188341110944748], [-0.07094332575798035], [0.058727461844682693], [-0.08580615371465683], [-0.07228264212608337], [-0.02063654363155365], [-0.005660744849592447], [-0.0025139236822724342], [0.10319726169109344], [0.06930872052907944], [-0.019035639241337776], [-0.012375986203551292], [-0.09885898232460022], [-0.1287228763103485], [-0.00024747461429797113], [0.0643809586763382], [0.23790910840034485], [-0.048050083220005035], [-0.12144347280263901], [-0.06750398874282837], [-0.005406556650996208], [-0.03737403079867363], [-0.1137288510799408], [0.019602688029408455], [0.11584942787885666], [-0.04397308826446533], [-0.07708577811717987], [0.05249176174402237], [0.06030644103884697], [-0.11001671850681305], [-0.025834208354353905], [0.22977329790592194], [0.005638047121465206], [0.09717393666505814], [0.027067966759204865], [0.23187021911144257], [0.15671183168888092], [0.04485997557640076], [0.08417050540447235], [0.0028440384194254875], [0.21522685885429382], [-0.06449303030967712], [0.11935021728277206], [0.3339790403842926], [0.0974821224808693], [-0.0009526616195216775], [0.11932956427335739], [0.031501252204179764], [-0.03582985699176788], [0.033720917999744415], [0.03296782821416855], [-0.040011197328567505], [0.04285586625337601], [0.02589491382241249], [0.05626555532217026], [-0.002913025440648198], [0.07113073766231537], [0.011584061197936535], [0.07683132588863373], [-0.0777294784784317], [0.06462745368480682], [0.012339873239398003], [0.05030205473303795], [0.03853965923190117], [0.09892770648002625], [0.06399570405483246], [-0.006492437329143286], [0.10010433197021484], [0.019591936841607094], [-0.006440175697207451], [-0.03327729180455208], [-0.07363693416118622], [0.10895683616399765], [-0.0663841962814331], [-0.026145391166210175], [0.05504994094371796], [-0.0015785223804414272], [-0.049649760127067566], [0.019625231623649597], [0.26447534561157227], [0.31480714678764343], [0.0716484934091568], [-0.018467532470822334], [0.15781401097774506], [0.10597214847803116], [0.05713733285665512], [-0.016620494425296783], [0.12521886825561523], [0.11002130806446075], [0.014966072514653206], [0.10127007216215134], [0.2662777900695801], [0.2141590267419815], [-0.006771886255592108], [0.09356696158647537], [0.01986997202038765], [0.21786877512931824], [0.07453419268131256], [0.02235659398138523], [0.07997873425483704], [0.040963344275951385], [0.072905994951725], [0.06330937147140503], [-0.11463820189237595], [-0.012593787163496017], [-0.01569647155702114], [0.06819404661655426], [-0.15872350335121155], [0.05160973593592644], [0.04176108166575432], [0.09453039616346359], [-0.06283747404813766], [0.05126001313328743], [-0.04687129333615303], [-0.0344679094851017], [-0.04493172839283943], [-0.008325178176164627], [-0.047017164528369904], [0.005595112219452858], [0.005686882417649031], [-0.03182535246014595], [-0.15338389575481415], [-0.03542645275592804], [-0.20002295076847076], [-0.05194948986172676], [-0.05640426278114319], [-0.03563641756772995], [-0.03218921273946762], [-0.11734484136104584], [0.00024749626754783094], [-0.08503417670726776], [-0.11062323302030563], [-0.04017767682671547], [-0.008536010049283504], [-0.008431408554315567], [-0.044822078198194504], [-0.1246708482503891], [-0.16215740144252777], [-0.07894808053970337], [-0.030006909742951393], [-0.0196700282394886], [-0.021911993622779846], [0.02129318192601204], [0.028750305995345116], [0.017248831689357758], [0.07184955477714539], [-0.09954357892274857], [0.07398851215839386], [0.053840793669223785], [0.09111934155225754], [0.02659965120255947], [-0.09167343378067017], [-0.07108596712350845], [-0.15680912137031555], [-0.007731950376182795], [-0.1106114387512207], [0.06752782315015793], [-0.006278480868786573], [0.05390087142586708], [0.06038402020931244], [0.09988051652908325], [0.005888702813535929], [-0.08745955675840378], [-0.14045123755931854], [-0.03256414830684662], [-0.04423339292407036], [-0.035224609076976776], [-0.018940167501568794], [-0.08506499230861664], [-0.2061445415019989], [-0.08778810501098633], [-0.07107540965080261], [0.044169265776872635], [0.027054794132709503], [0.022850433364510536], [0.22509872913360596], [-0.13026456534862518], [0.16145409643650055], [-0.1593559980392456], [0.26160112023353577], [0.18445129692554474], [0.12283489108085632], [0.045521579682826996], [-0.10043302923440933], [0.1895754188299179], [-0.09853767603635788], [0.09859717637300491], [0.32965466380119324], [0.12342027574777603], [-0.004238357301801443], [0.21735702455043793], [0.06484980881214142], [0.405623197555542], [0.018198208883404732], [-0.0126095712184906], [0.02439301088452339], [0.05269503965973854], [0.030121292918920517], [0.0335896797478199], [-0.08047789335250854], [-0.06328967958688736], [0.06317337602376938], [0.07809451967477798], [-0.0357244573533535], [0.0006262638489715755], [-0.02366413176059723], [0.09626197814941406], [-0.049238260835409164], [0.1063012033700943], [0.02217724174261093], [-0.0174136720597744], [-0.05890258029103279], [-0.014711147174239159], [-0.02236817218363285], [-0.018239784985780716], [-0.07552100718021393], [-0.03667408600449562], [-0.043836809694767], [0.015576623380184174], [-0.13418743014335632], [0.012383125722408295], [-0.03722885996103287], [-0.0331343449652195], [-0.06210663542151451], [-0.1408456265926361], [-0.00380506063811481], [0.008685111999511719], [-0.08858994394540787], [-0.034278806298971176], [-0.04230373352766037], [-0.06999465078115463], [-0.09294531494379044], [-0.14597010612487793], [-0.09798842668533325], [-0.12697182595729828], [-0.1535484343767166], [-0.11756575107574463], [-0.06898123025894165], [-0.07051163911819458], [0.04899655655026436], [-0.015475769527256489], [0.05591606721282005], [0.08346796780824661], [0.023409230634570122], [0.051227767020463943], [0.05100191384553909], [0.03457320109009743], [-0.10252658277750015], [0.0790572315454483], [-0.05608534440398216], [0.027007361873984337], [-0.03863511234521866], [0.05559181049466133], [0.031859952956438065], [0.05262238532304764], [-0.1607629358768463], [0.05025559663772583], [-0.11398562788963318], [-0.0022281561978161335], [-0.18673506379127502], [-0.08214280754327774], [-0.05156010389328003], [0.00028714092331938446], [-0.05570989474654198], [-0.05198301002383232], [-0.04777047038078308], [-0.049391910433769226], [-0.4066774249076843], [-0.049928292632102966], [-0.03803885728120804], [-0.0928247943520546], [-0.12204721570014954], [-0.07790692895650864], [0.003617000998929143], [-0.013826049864292145], [-0.07968559116125107], [-0.10158085078001022], [-0.022830726578831673], [-0.13584072887897491], [-0.019528159871697426], [-0.10811276733875275], [-0.05411079153418541], [-0.09029076248407364], [-0.11741673201322556], [-0.07839812338352203], [-0.07468929141759872], [0.0006304419948719442], [0.12983864545822144], [-0.17690153419971466], [0.008543227799236774], [0.00568619929254055], [0.02120601199567318], [0.003482129657641053], [-0.047760896384716034], [-0.08023105561733246], [0.019402993842959404], [0.06912505626678467], [0.021688872948288918], [-0.05322078987956047], [0.058853648602962494], [0.05816704407334328], [-0.08390705287456512], [0.029718294739723206], [-0.1199173852801323], [0.17237062752246857], [-0.014204567298293114], [-0.03172290697693825], [0.02092633582651615], [0.014638942666351795], [-0.06055819243192673], [0.04060453549027443], [-0.06063607335090637], [-0.08292876183986664], [-0.04253697767853737], [-0.022289209067821503], [-0.054064035415649414], [-0.043520860373973846], [-0.08552389591932297], [-0.03590866178274155], [-0.0023727130610495806], [-0.20876751840114594], [-0.024902237579226494], [-0.0330958254635334], [-0.04294225201010704], [-0.0749870166182518], [-0.024825196713209152], [-0.01926703006029129], [-0.05370170250535011], [-0.10281998664140701], [-0.07023285329341888], [0.025780722498893738], [-0.1746649295091629], [0.008716518990695477], [-0.06713150441646576], [-0.04864652082324028], [0.004454982932657003], [0.11732184886932373], [-0.03244989737868309], [0.01824985072016716], [0.014371558092534542], [0.03891754895448685], [-0.03940167278051376], [0.05299064889550209], [0.0067452420480549335], [0.07141625881195068], [-0.13481828570365906], [-0.017572827637195587], [0.015353891998529434], [0.03469034656882286], [0.015425138175487518], [0.058648038655519485], [0.018991094082593918], [0.031419456005096436], [-0.023725586012005806], [0.03512051701545715], [-0.031662940979003906], [-0.01138949766755104], [-0.023907339200377464], [-0.015133088454604149], [-0.04517178609967232], [-0.07058150321245193], [-0.020930960774421692], [-0.011865433305501938], [-0.05398526042699814], [0.0022162937093526125], [-0.09497670829296112], [-0.01362172793596983], [0.010509639978408813], [-0.1235341876745224], [-0.0001521006051916629], [-0.020733818411827087], [0.05126772075891495], [-0.013054327107965946], [-0.06194504350423813], [-0.08660024404525757], [-0.06991232931613922], [-0.03595660254359245], [-0.13959096372127533], [-0.06809008121490479], [0.055952221155166626], [-0.03903382271528244], [-0.11547943949699402], [-0.009591074660420418], [0.11654113233089447], [0.1050632894039154], [0.02382032945752144], [-0.03268143907189369], [0.12452121078968048], [0.09651260077953339], [0.01626252755522728], [-0.04312153905630112], [-0.014657726511359215], [-0.018289480358362198], [-0.15921856462955475], [-0.048926349729299545], [0.13042238354682922], [-0.022404128685593605], [-0.045480817556381226], [0.09679746627807617], [-0.046517278999090195], [0.004828202538192272], [0.07883278280496597], [0.07439262419939041], [0.01223792601376772], [0.020735420286655426], [-0.011596564203500748], [0.06190307065844536], [-0.07347430288791656], [0.0057770200073719025], [0.02175712399184704], [0.09535671025514603], [-0.13950450718402863], [0.05382292717695236], [0.0068044341169297695], [-0.0021876501850783825], [-0.0851970762014389], [0.013784307986497879], [-0.01683172397315502], [-0.05682395398616791], [-0.07944735884666443], [-0.0704321414232254], [0.00418468052521348], [-0.03381337225437164], [-0.07993695884943008], [-0.16462107002735138], [-0.12748858332633972], [-0.09126951545476913], [-0.18072837591171265], [-0.04260186478495598], [-0.046226829290390015], [-0.024557096883654594], [0.13834184408187866], [-0.2452065348625183], [0.09413162618875504], [-0.10092900693416595], [0.1518561691045761], [0.10034877806901932], [0.06603991985321045], [0.0029346253722906113], [-0.009737360291182995], [-0.10703621059656143], [-0.12764282524585724], [0.06696512550115585], [0.0756441280245781], [0.04949631541967392], [-0.031183112412691116], [0.14087596535682678], [-0.007212406489998102], [0.013326210901141167], [0.0382978655397892], [-0.0080421669408679], [0.05234444513916969], [0.08193602412939072], [0.06693907827138901], [0.12418127804994583], [-0.23042631149291992], [0.07416976988315582], [-0.0038522533141076565], [0.08085763454437256], [-0.1995777189731598], [-0.07256288081407547], [0.0046793073415756226], [0.1227751076221466], [0.06990474462509155], [0.04693436995148659], [0.02163766697049141], [0.028100451454520226], [-0.04749973863363266], [0.025810716673731804], [-0.05322757735848427], [-0.02304147556424141], [0.051536403596401215], [-0.17766216397285461], [-0.07736732065677643], [-0.046345435082912445], [0.13696804642677307], [0.097735196352005], [-0.04038757085800171], [0.02823035605251789], [-0.02092044986784458], [-0.18999254703521729], [-0.004005258437246084], [-0.1296486109495163], [0.0306226946413517], [-0.028142400085926056], [0.006542310118675232], [-0.04614205285906792], [-0.09946448355913162], [-0.11434821039438248], [-0.22310815751552582], [0.012697701342403889], [-0.11597911268472672], [0.03992485627532005], [-0.005600456148386002], [-0.008537706919014454], [-0.06455910205841064], [0.2135491818189621], [0.043228693306446075], [-0.04658761993050575], [-0.022477831691503525], [0.012541159056127071], [0.0330691859126091], [0.07461261749267578], [-0.0783926248550415], [-0.1306799352169037], [0.04847395047545433], [0.009362513199448586], [-0.1491861790418625], [-0.0597010962665081], [0.014241320081055164], [-0.047673556953668594], [0.06394478678703308], [-0.027333982288837433], [0.026146138086915016], [-0.0663592666387558], [0.0518336296081543], [0.042768049985170364], [-0.0442182756960392], [-0.057771895080804825], [0.02044103667140007], [0.16672736406326294], [-0.12030097842216492], [0.050163835287094116], [0.13603174686431885], [0.065758615732193], [-0.02694738656282425], [0.07578451186418533], [-0.04253416508436203], [-0.08289995789527893], [-0.012533098459243774], [-0.013665235601365566], [-0.11569616943597794], [-0.07341057062149048], [-0.00879975501447916], [-0.01213608868420124], [-0.06934046745300293], [-0.06887882947921753], [-0.06414680927991867], [-0.048889465630054474], [-0.15734605491161346], [-0.05764999985694885], [-0.017041243612766266], [0.030863188207149506], [-0.1370871365070343], [0.20965278148651123], [-0.052598971873521805], [0.0008690644754096866], [-0.09365656226873398], [0.046329036355018616], [-0.1273605078458786], [-0.11543319374322891], [-0.05683214217424393], [-0.09514627605676651], [-0.04527412727475166], [-0.07065878808498383], [-0.19789455831050873], [-0.061556532979011536], [-0.08962195366621017], [-0.11586032807826996], [-0.06620785593986511], [-0.12724870443344116], [-0.03273129463195801], [-0.030081287026405334], [-0.11444178223609924], [-0.027274146676063538], [-0.010266553610563278], [-0.006669561378657818], [-0.059874989092350006], [-0.10580282658338547], [-0.012389966286718845], [-0.007665483746677637], [-0.1739402562379837], [-0.07072823494672775], [-0.10061067342758179], [-0.06243797764182091], [-0.05125080794095993], [-0.17853158712387085], [0.008610979653894901], [-0.06546694040298462], [-0.0593520887196064], [-0.005988972261548042], [0.020345531404018402], [0.0469893254339695], [-0.045911554247140884], [0.0017858775099739432], [-0.12224099040031433], [0.058834709227085114], [-0.08860118687152863], [-0.013485586270689964], [0.028761161491274834], [-0.0176792461425066], [-0.048876453191041946], [-0.08697938919067383], [-0.024113783612847328], [0.022463105618953705], [-0.16151754558086395], [-0.033575285226106644], [-0.034559447318315506], [-0.027553947642445564], [-0.08049015700817108], [-0.34242957830429077], [-0.04483940452337265], [-0.08015935122966766], [-0.18385425209999084], [-0.05554179474711418], [0.014975616708397865], [-0.04886237159371376], [0.06474576145410538], [0.10102786868810654], [0.09949354082345963], [-0.03988104313611984], [0.07046113163232803], [0.06376948952674866], [-0.021829945966601372], [-0.03134147450327873], [0.06730958819389343], [-0.027142198756337166], [-0.06615494191646576], [-0.021804239600896835], [0.20721927285194397], [0.07243959605693817], [-0.09566337615251541], [0.07517684996128082], [-0.05463770031929016], [-0.2557903230190277], [0.06884443759918213], [0.041265472769737244], [0.028933396562933922], [0.06504348665475845], [0.07693184167146683], [0.031524933874607086], [-0.12659721076488495], [-0.044294122606515884], [-0.0841846615076065], [0.08305622637271881], [-0.21109534800052643], [0.03083283267915249], [0.0747717022895813], [0.0755494236946106], [-0.031162509694695473], [-0.02402983233332634], [0.03576413914561272], [0.041318412870168686], [-0.06988152116537094], [-0.062427300959825516], [0.012521150521934032], [-0.0023842486552894115], [-0.05865531042218208], [-0.12003752589225769], [-0.0678652971982956], [-0.04650697112083435], [-0.1844761222600937], [-0.047619014978408813], [0.01941739208996296], [-0.006760189775377512], [-0.047779448330402374], [-0.11774498224258423], [-0.05068149417638779], [0.017705362290143967], [-0.15731637179851532], [-0.09730344265699387], [-0.04854949563741684], [-0.09303858131170273], [-0.06593780964612961], [-0.19687622785568237], [-0.1753244400024414], [-0.057655688375234604], [-0.1730218082666397], [-0.029740625992417336], [0.03287993371486664], [-0.07133384048938751], [0.03261583670973778], [0.0019839154556393623], [0.013617119751870632], [0.04557301849126816], [0.02917429432272911], [0.008225507102906704], [0.0012416357640177011], [0.05496031790971756], [-0.04355214536190033], [-0.15749143064022064], [-0.059342361986637115], [0.025825342163443565], [-0.04167929291725159], [0.03342466428875923], [-0.009107689373195171], [0.03462791442871094], [-0.21075966954231262], [0.0017113647190853953], [-0.018817821517586708], [-0.08914260566234589], [-0.02094649337232113], [-0.02890995517373085], [-0.061125386506319046], [-0.051285721361637115], [-0.07503166794776917], [-0.06300054490566254], [-0.1724608838558197], [-0.0840374156832695], [-0.34923475980758667], [-0.15964417159557343], [-0.0739329531788826], [-0.06216670572757721], [0.2969312071800232], [-0.2868718206882477], [0.21469706296920776], [-0.12459076941013336], [0.22574543952941895], [0.2737892270088196], [0.21734024584293365], [0.0759296864271164], [0.020558619871735573], [0.10329567641019821], [-0.22316473722457886], [0.20248885452747345], [0.39803847670555115], [0.20273007452487946], [0.032780952751636505], [0.388621985912323], [-0.27144476771354675], [0.30826103687286377], [-0.048290763050317764], [-0.05290733277797699], [-0.04150799661874771], [0.06511107087135315], [-0.0031782991718500853], [0.14470340311527252], [-0.20174211263656616], [-0.011738692410290241], [-0.020811766386032104], [0.14178527891635895], [-0.38436365127563477], [-0.13071493804454803], [0.03656786307692528], [-0.07400182634592056], [-0.10872599482536316], [-0.292412132024765], [-0.05622033029794693], [-0.012864923104643822], [-0.13803593814373016], [-0.08699193596839905], [0.005613347049802542], [-0.012050914578139782], [-0.16511043906211853], [-0.14659899473190308], [-0.22076515853405], [-0.057563867419958115], [-0.15837723016738892], [-0.05347495898604393], [-0.03244686499238014], [-0.02042761631309986], [-0.12091948837041855], [0.14795123040676117], [-0.01913371868431568], [0.021304504945874214], [-0.020704856142401695], [-0.035619813948869705], [-0.058498281985521317], [-0.02062009833753109], [-0.062081657350063324], [-0.14943011105060577], [-0.011336294934153557], [-0.007094844244420528], [-0.17321379482746124], [0.005937341134995222], [-0.05243942141532898], [-0.09683831036090851], [-0.06633840501308441], [-0.15163931250572205], [-0.017609741538763046], [-0.020737385377287865], [-0.06899422407150269], [-0.040219034999608994], [-0.045525286346673965], [-0.051996175199747086], [-0.0907898023724556], [-0.1285819709300995], [-0.1721293330192566], [-0.11733996868133545], [-0.18070799112319946], [-0.0357365757226944], [0.005342839751392603], [-0.030629698187112808], [-0.0956445038318634], [-0.04614948108792305], [0.044470686465501785], [-0.09556883573532104], [-0.08354439586400986], [-0.037074845284223557], [-0.01325223222374916], [-0.022975698113441467], [-0.119159996509552], [-0.1806241273880005], [-0.12791404128074646], [-0.05369741469621658], [-0.15517213940620422], [-0.03716865926980972], [0.008294500410556793], [-0.013732606545090675], [0.060131143778562546], [-0.11712130904197693], [0.0849309116601944], [0.1493314653635025], [0.014710161834955215], [-0.0016918000765144825], [0.03553399071097374], [0.04518460854887962], [-0.07334429770708084], [-0.09406854212284088], [-0.21287038922309875], [0.10020492970943451], [-0.11443150043487549], [0.03566217049956322], [0.004247869364917278], [0.018579453229904175], [-0.00027436285745352507], [0.11580553650856018], [-0.025234971195459366], [0.07442997395992279], [-0.05177900940179825], [-0.05110472813248634], [-0.0003380809212103486], [0.07473816722631454], [0.0545705109834671], [0.0013284585438668728], [0.1661575883626938], [-0.023463528603315353], [0.004726865328848362], [0.043187350034713745], [-0.0619918555021286], [-0.021078433841466904], [-0.07318668812513351], [-0.13911840319633484], [-0.03419777378439903], [0.014002286829054356], [-0.10378029942512512], [-0.06759245693683624], [-0.0031564226374030113], [-0.04701747000217438], [0.012765003368258476], [-0.3223089277744293], [-0.09227941930294037], [-0.13684993982315063], [-0.2018265575170517], [0.008416633121669292], [0.005890254396945238], [-0.07164766639471054], [0.07511354982852936], [0.10367989540100098], [0.0539250448346138], [-0.008873924612998962], [0.032311346381902695], [0.10150866210460663], [0.026899119839072227], [0.0930042490363121], [-0.04371578246355057], [0.047722578048706055], [0.019788995385169983], [0.05318919196724892], [-0.135866180062294], [0.09307099133729935], [0.043384652584791183], [0.12236137688159943], [-0.09916271269321442], [-0.03087334893643856], [0.01700749807059765], [-0.003221209393814206], [-0.06441260129213333], [-0.041456080973148346], [-0.050961483269929886], [-0.03618096932768822], [0.034046467393636703], [-0.06919066607952118], [-0.05756080523133278], [0.008282439783215523], [-0.17065532505512238], [-0.08283159881830215], [-0.09564077854156494], [-0.11166497319936752], [-0.10843278467655182], [-0.2733466625213623], [-0.053763497620821], [-0.04499408230185509], [-0.18087810277938843], [-0.1405709683895111], [-0.08302165567874908], [-0.00443013571202755], [-0.026838334277272224], [-0.19066911935806274], [-0.09775387495756149], [-0.11373865604400635], [-0.2760721445083618], [-0.0966298058629036], [-0.0208700243383646], [-0.0617121122777462], [0.02819136716425419], [0.014050513505935669], [0.030158182606101036], [-0.038626428693532944], [0.06008773297071457], [0.06761478632688522], [0.0005687617813237011], [-0.04629145562648773], [-0.0753365010023117], [-0.0638248473405838], [-0.08183438330888748], [-0.09261728823184967], [-0.04272666946053505], [-0.004668551962822676], [-0.016640588641166687], [0.07390093803405762], [-0.07403459399938583], [0.02620740793645382], [-0.06346393376588821], [0.035754382610321045], [-0.08833111822605133], [-0.03712514415383339], [-0.0293340552598238], [0.03437291458249092], [-0.09539175778627396], [0.07582241296768188], [-0.004702666774392128], [0.10966192930936813], [-0.08273133635520935], [-0.11569066345691681], [-0.030264653265476227], [0.03200230374932289], [0.06166229769587517], [0.136539489030838], [0.05722114071249962], [-0.014862844720482826], [0.1803736835718155], [0.05459108203649521], [0.012577926740050316], [-0.007182885892689228], [0.06494931876659393], [0.029308654367923737], [-0.07483132183551788], [0.030701175332069397], [0.22365576028823853], [0.05128040537238121], [0.0048465244472026825], [0.019203050062060356], [-0.016104578971862793], [0.10039674490690231], [0.0525551438331604], [-0.0435313954949379], [-0.019221648573875427], [-0.03142711892724037], [-0.022103188559412956], [0.07080721110105515], [-0.09348230063915253], [-0.07007754594087601], [-0.15232804417610168], [0.00017280953761655837], [-0.18183207511901855], [-0.053890977054834366], [0.0010991775197908282], [0.019142039120197296], [0.058362964540719986], [-0.06913991272449493], [-0.007113731000572443], [-0.006851096637547016], [0.01606999710202217], [0.02373412437736988], [-0.003853623289614916], [-0.0323094017803669], [-0.0005683334893546999], [-0.1856338083744049], [0.04389694333076477], [-0.03202261030673981], [-0.10719341039657593], [-0.029358714818954468], [-0.017848847433924675], [0.024085726588964462], [0.15905047953128815], [-0.20953881740570068], [0.08218719810247421], [-0.2037987858057022], [0.19228026270866394], [0.09910174459218979], [0.08269701898097992], [0.10253109782934189], [-0.037124793976545334], [0.12481342256069183], [-0.2415241003036499], [0.13092365860939026], [0.19792146980762482], [0.10030439496040344], [0.03389636054635048], [0.10854420810937881], [-0.14013174176216125], [0.11484364420175552], [-0.04628307372331619], [0.003045672783628106], [-0.13062739372253418], [-0.11665385961532593], [-0.020596148446202278], [0.05475709214806557], [-0.0835593044757843], [-0.1158500462770462], [-0.045176342129707336], [-0.03312601521611214], [-0.2901623547077179], [-0.05865374952554703], [0.06385327875614166], [-0.06852489709854126], [-0.07863165438175201], [0.04443751275539398], [0.002252777572721243], [-0.03886330500245094], [-0.015720337629318237], [-0.04427812248468399], [-0.07485215365886688], [-0.10149188339710236], [-0.03611648827791214], [-0.1435033231973648], [-0.06793620437383652], [-0.11207252740859985], [-0.17379681766033173], [-0.06008424982428551], [-0.04337458685040474], [-0.07248474657535553], [0.12477607280015945], [-0.0014013956533744931], [0.09667661786079407], [-0.012453691102564335], [0.08573117852210999], [0.05745087191462517], [0.0812477171421051], [0.02401873469352722], [-0.009568518027663231], [0.045490771532058716], [-0.1741122156381607], [0.10202579945325851], [0.06312569975852966], [0.07878146320581436], [-0.006171549204736948], [0.08175050467252731], [0.013347990810871124], [0.2036411613225937], [0.03689798712730408], [0.11675788462162018], [0.040860891342163086], [-0.010817231610417366], [-0.016212210059165955], [0.0011663369368761778], [-0.034449245780706406], [-0.02982948161661625], [0.03324107825756073], [0.012902870774269104], [-0.06260599941015244], [-0.07132715731859207], [-0.07023314386606216], [-0.0129489004611969], [-0.05472337827086449], [0.13670958578586578], [-0.04433327168226242], [-0.07377205789089203], [-0.037108030170202255], [-0.06235538795590401], [-0.05601826682686806], [-0.06208479404449463], [-0.009623640216886997], [-0.055002570152282715], [-0.07084149867296219], [-0.07191464304924011], [0.0060319434851408005], [-0.10002593696117401], [-0.09066403657197952], [-0.11728890240192413], [0.02519945427775383], [-0.11899922043085098], [0.0061394949443638325], [-0.03360021486878395], [0.02099774219095707], [0.008266795426607132], [-0.0579688735306263], [-0.02708462066948414], [-0.04648841172456741], [-0.0434323288500309], [-0.12294594943523407], [-0.037946462631225586], [0.055175311863422394], [-0.022420188412070274], [-0.09732064604759216], [-0.03424520418047905], [0.0774778351187706], [0.03239140287041664], [0.07809615135192871], [0.003983429633080959], [0.09510353207588196], [0.03168331831693649], [-0.010676994919776917], [-0.031372714787721634], [-0.006693466100841761], [-0.027601905167102814], [-0.06519411504268646], [-0.04624034836888313], [0.1913587599992752], [0.09690167754888535], [-0.03226156160235405], [0.12374889850616455], [-0.010025116614997387], [-0.04572910815477371], [0.033794134855270386], [-0.0523337796330452], [-0.013308539986610413], [-0.008265173062682152], [-0.0262544434517622], [0.0262122955173254], [-0.07740145176649094], [0.013122874312102795], [-0.10000342130661011], [0.036132581532001495], [-0.13665881752967834], [-0.02552659437060356], [-0.05081454664468765], [-0.026196010410785675], [-0.059057991951704025], [-0.09530605375766754], [-0.011733741499483585], [0.12056632339954376], [0.007839071564376354], [-0.013232731260359287], [-0.05269487202167511], [-0.021053308621048927], [-0.05605284869670868], [-0.057628434151411057], [-0.030779404565691948], [-0.03600451350212097], [-0.04019783064723015], [-0.02780928835272789], [-0.05701744928956032], [-0.043999094516038895], [-0.19296936690807343], [0.05952424183487892], [-0.09997265785932541], [-0.07393261045217514], [-0.1567610651254654], [-0.09588424116373062], [-0.12260733544826508], [-0.1285117119550705], [-0.032739970833063126], [-0.03931250050663948], [-0.005030714441090822], [-0.16065850853919983], [-0.15561306476593018], [-0.09922952204942703], [-0.07792262732982635], [-0.15896117687225342], [-0.17147625982761383], [0.0872470811009407], [-0.0907345861196518], [0.050743501633405685], [-0.20216104388237], [-0.15869231522083282], [-0.10247467458248138], [-0.059568632394075394], [-0.00288501288741827], [-0.04067892208695412], [-0.03656972572207451], [-0.08605968952178955], [-0.23821748793125153], [-0.016529506072402], [-0.06909538805484772], [-0.1376882791519165], [0.09252143651247025], [-0.40517348051071167], [0.06207440420985222], [-0.014989578165113926], [-0.08037734031677246], [-0.059431929141283035], [0.06887070089578629], [-0.03430096432566643], [-0.07544093579053879], [0.004126569721847773], [-0.17943786084651947], [-0.10896527767181396], [-0.024057097733020782], [0.06060069799423218], [-0.02006266824901104], [0.11920776218175888], [0.0021063557360321283], [-0.061813365668058395], [0.013733498752117157], [-0.02397809736430645], [0.05412185192108154], [0.03680247440934181], [0.059560373425483704], [0.042780451476573944], [-0.1205008402466774], [0.015479271300137043], [-0.06201039254665375], [0.01474615279585123], [-0.1422358900308609], [-0.0037314791698008776], [-0.01773032732307911], [0.03390314057469368], [-0.04900237172842026], [0.061346422880887985], [-0.05098867416381836], [-0.016770895570516586], [-0.10064053535461426], [-0.10722976922988892], [-0.06237820163369179], [-0.10499684512615204], [0.0009501184686087072], [-0.08218991756439209], [-0.11112438887357712], [-0.14487598836421967], [-0.12352094799280167], [-0.057480670511722565], [-0.0486111082136631], [-0.09716663509607315], [-0.08613690733909607], [0.058378707617521286], [-0.016441775485873222], [-0.02328830026090145], [-0.053330741822719574], [-0.03310183063149452], [0.008192001841962337], [-0.03829826042056084], [-0.062167175114154816], [-0.06074274703860283], [-0.0698302835226059], [-0.03622787818312645], [-0.08919254690408707], [-0.043330397456884384], [0.012073908001184464], [-0.06425109505653381], [0.2890408933162689], [-0.09309817850589752], [0.14124256372451782], [-0.028842952102422714], [0.16313773393630981], [0.09602001309394836], [0.05262476205825806], [0.017084918916225433], [0.09198123216629028], [0.041516732424497604], [-0.15420669317245483], [0.03240985423326492], [0.22252488136291504], [0.16700153052806854], [-0.011724743992090225], [0.19410115480422974], [0.01820382848381996], [0.37016043066978455], [0.055184505879879], [0.03670746088027954], [0.11776241660118103], [0.09159201383590698], [0.0743553563952446], [0.07610815763473511], [-0.08110526204109192], [0.057631395757198334], [0.04951995611190796], [0.09138897806406021], [0.05483183637261391], [-0.004397955257445574], [0.06083434075117111], [0.12859737873077393], [0.05069020017981529], [0.007196372374892235], [0.017673105001449585], [0.0006745206192135811], [-0.015195803716778755], [0.02733331359922886], [0.01889698952436447], [-0.04010380059480667], [-0.09654748439788818], [-0.1213071197271347], [-0.263355016708374], [-0.044561054557561874], [-0.023570533841848373], [-0.05295566841959953], [-0.01596078835427761], [0.019052572548389435], [-0.022689029574394226], [0.11503393948078156], [0.03661102429032326], [-0.006640120875090361], [0.0026738704182207584], [-0.01810435950756073], [0.008336856961250305], [0.0007204917492344975], [-0.06665776669979095], [-0.10500944405794144], [-0.06605719029903412], [0.02000071480870247], [-0.09271200746297836], [-0.007398673798888922], [0.00014352220750879496], [-0.03226327896118164], [-0.06214360147714615], [0.18484394252300262], [-0.07136905193328857], [-0.08509702235460281], [-0.05928774178028107], [-0.05007924512028694], [-0.0375349298119545], [0.002523742150515318], [-0.10533568263053894], [-0.07299040257930756], [-0.026354242116212845], [-0.0386129692196846], [-0.13886910676956177], [-0.03087841346859932], [-0.004427226260304451], [-0.11105574667453766], [-0.07623754441738129], [-0.061953701078891754], [0.014187518507242203], [0.0030717349145561457], [0.061454564332962036], [-0.007848515175282955], [-0.040007565170526505], [0.054479148238897324], [0.05115906149148941], [0.019998343661427498], [-0.13770166039466858], [0.0610513910651207], [-0.08301498740911484], [0.006506666075438261], [-0.029925724491477013], [0.026962190866470337], [0.09837321937084198], [-0.16185706853866577], [0.025423912331461906], [-0.06617633253335953], [0.09800619632005692], [0.07435613870620728], [0.06565375626087189], [0.01174202747642994], [-0.021657144650816917], [-0.0031138304620981216], [-0.1913558840751648], [0.050981830805540085], [0.08480260521173477], [0.0360553152859211], [-0.01249842531979084], [0.08526234328746796], [-0.04724651947617531], [0.195045605301857], [-0.025435496121644974], [0.014393959194421768], [-0.009207182563841343], [0.013850206509232521], [0.040747206658124924], [0.03827592357993126], [-0.015759076923131943], [0.0034181016962975264], [0.0593494288623333], [-0.017498034983873367], [0.012344378046691418], [-0.005288217216730118], [-0.007362958509474993], [0.028820056468248367], [0.1204637736082077], [0.07240202277898788], [0.06956236064434052], [-0.010214346460998058], [0.017400575801730156], [0.08416736871004105], [0.061435308307409286], [-0.05073574185371399], [-0.07518397271633148], [-0.008526003919541836], [-0.14319150149822235], [0.014265569858253002], [0.12547245621681213], [0.07078665494918823], [-0.051233600825071335], [0.10790161788463593], [0.0825372040271759], [-0.07967392355203629], [0.029802780598402023], [-0.06047508493065834], [0.04026682302355766], [0.01390375941991806], [0.08122704923152924], [0.03553643822669983], [-0.07024236023426056], [0.05524890124797821], [-0.13000068068504333], [0.058483920991420746], [0.021879974752664566], [0.042292267084121704], [-0.05437209829688072], [0.10618874430656433], [0.01847287453711033], [0.19143496453762054], [0.11080732196569443], [0.01853127032518387], [0.10808523744344711], [0.13277484476566315], [0.08003848046064377], [0.03749905154109001], [0.04691082239151001], [0.19800375401973724], [0.0066426522098481655], [0.10778215527534485], [-0.026995643973350525], [0.11678372323513031], [-0.06538848578929901], [0.07118722051382065], [-0.09461615979671478], [0.06686805188655853], [-0.10693053156137466], [-0.057103391736745834], [-0.18098975718021393], [-0.11681883782148361], [-0.05977322906255722], [-0.0536700040102005], [-0.039873961359262466], [-0.014719096943736076], [0.007125538308173418], [-0.14789004623889923], [-0.08708066493272781], [-0.10766708850860596], [-0.02977045625448227], [-0.026547692716121674], [-0.003368317149579525], [0.119361512362957], [-0.01871437020599842], [0.01776500977575779], [0.03246914967894554], [0.06730516999959946], [-0.09993171691894531], [-0.11412567645311356], [0.036257583647966385], [0.1454789936542511], [-0.08824937790632248], [-0.002785801189020276], [0.05211873725056648], [0.020755499601364136], [-0.11121319234371185], [0.03953540325164795], [-0.10424666851758957], [-0.1449429839849472], [0.0032185271847993135], [0.12363339215517044], [-0.13166667520999908], [-0.10536104440689087], [-0.079167939722538], [-0.014054044149816036], [-0.0007158996304497123], [-0.022267278283834457], [0.04242922365665436], [-0.06560657173395157], [-0.1288575977087021], [-0.06431204080581665], [-0.015712877735495567], [-0.0699596181511879], [-0.014809523709118366], [0.04710160940885544], [-0.02285763807594776], [0.0683152973651886], [-0.14680097997188568], [-0.06358332186937332], [-0.084506556391716], [-0.07217887043952942], [0.02246258780360222], [-0.06464093178510666], [0.15689480304718018], [-0.09545533359050751], [-0.14827404916286469], [0.022420654073357582], [-0.023194963112473488], [-0.04681447148323059], [0.09192910045385361], [-0.16955305635929108], [0.038220372051000595], [0.051605645567178726], [0.1301194429397583], [0.08552493900060654], [-0.018317265436053276], [-2.3817996407160535e-05], [-0.05459928512573242], [0.09049727022647858], [-0.1816900372505188], [0.054227206856012344], [0.2800319194793701], [0.023227853700518608], [-0.025466635823249817], [0.07811307162046432], [0.12981291115283966], [-0.11084432154893875], [0.026712071150541306], [-0.03501772880554199], [0.1271684765815735], [0.06434622406959534], [-0.058008380234241486], [-0.021408921107649803], [0.12112647294998169], [0.021847175434231758], [0.028623761609196663], [-0.05788881704211235], [0.24341990053653717], [0.053553804755210876], [-0.02416037954390049], [0.09876886755228043], [0.1886155605316162], [-0.35145753622055054], [0.1138559877872467], [-0.1120326966047287], [0.23205441236495972], [0.18109777569770813], [0.07755887508392334], [0.07523436099290848], [0.03145064413547516], [0.18419188261032104], [-0.14292801916599274], [0.1172330379486084], [0.2049606591463089], [0.1159733310341835], [0.06658443808555603], [0.21920688450336456], [-0.00047738809371367097], [0.2004452645778656], [0.03355841711163521], [0.03174414858222008], [0.1633281707763672], [0.10375790297985077], [0.0674315020442009], [0.05812644585967064], [0.028181305155158043], [0.11526796221733093], [0.04962307587265968], [0.10679204761981964], [0.0867219865322113], [-0.02377348765730858], [0.062473032623529434], [0.06517240405082703], [0.03503631055355072], [0.06996748596429825], [-0.0035459573846310377], [-0.06383179873228073], [0.07449749857187271], [0.007060851901769638], [-0.00871212687343359], [0.019626503810286522], [0.02744162827730179], [0.11067763715982437], [-0.006349179428070784], [0.018492791801691055], [0.07035823911428452], [-0.006239776965230703], [-0.042108744382858276], [0.02208205685019493], [-0.05511205270886421], [0.2064271718263626], [0.004078858066350222], [-0.020264696329832077], [0.06623657792806625], [-0.012596878223121166], [0.06099390611052513], [0.02369936928153038], [-0.16126443445682526], [0.08914923667907715], [0.05902669206261635], [0.024886924773454666], [-0.20182369649410248], [-0.023052671924233437], [0.057760752737522125], [-0.040025096386671066], [0.057244762778282166], [0.007935668341815472], [-0.027340613305568695], [-0.09065958857536316], [-0.04470769315958023], [0.002313549630343914], [-0.0011808312265202403], [-0.05956175550818443], [-0.020832544192671776], [0.05217587202787399], [-0.19830599427223206], [-0.04453450068831444], [0.20561541616916656], [0.06340669840574265], [-0.056566085666418076], [0.004909193143248558], [-0.08524414896965027], [0.22920167446136475], [-0.06428946554660797], [-0.041447412222623825], [0.01538531668484211], [0.004247098229825497], [-0.03359529376029968], [0.003481145715340972], [-0.12568259239196777], [0.10522926598787308], [-0.06547210365533829], [0.01512405276298523], [-0.05561884120106697], [-0.09030496329069138], [-0.061917517334222794], [0.0025596003979444504], [-0.014093407429754734], [0.00864858366549015], [-0.03327649459242821], [-0.04631364718079567], [0.003512150840833783], [-0.0017749927937984467], [-0.0382237508893013], [-0.07533477246761322], [-0.00014487429871223867], [0.07351357489824295], [-0.004605663474649191], [-0.10107752680778503], [0.14636237919330597], [-0.010891267098486423], [0.008058642037212849], [0.003327691927552223], [-0.0036857451777905226], [0.16797244548797607], [0.013078081421554089], [0.027981378138065338], [-0.05268526449799538], [-0.042732104659080505], [-0.04223022982478142], [-0.051327090710401535], [0.002031083917245269], [-0.038117799907922745], [-0.014630258083343506], [-0.02429882064461708], [-0.039913952350616455], [0.022040333598852158], [-0.03336753696203232], [-0.003353533800691366], [-0.02721259742975235], [0.1514977067708969], [-0.06597482413053513], [0.002228997414931655], [0.02695399709045887], [0.0031445713248103857], [-0.03238958865404129], [0.00431826850399375], [-0.11331433802843094], [0.06822241842746735], [-0.010802657343447208], [-0.0029240387957543135], [-0.12963934242725372], [-0.012354901060461998], [-0.1007784903049469], [-0.05764390900731087], [-0.013499116525053978], [-0.05843660607933998], [-0.038965579122304916], [0.023998437449336052], [0.09817242622375488], [0.05351048707962036], [-0.06749705970287323], [-0.006755265407264233], [0.14662177860736847], [0.13330508768558502], [0.06411704421043396], [-0.07367905229330063], [0.1389773190021515], [0.015391899272799492], [-0.09553555399179459], [-0.006566180847585201], [-0.009124492295086384], [0.01830834336578846], [0.011813214048743248], [-0.004561250098049641], [-0.036525044590234756], [-0.016992811113595963], [-0.019235381856560707], [0.01286148838698864], [0.07319121807813644], [0.04509098455309868], [-0.03759658709168434], [-0.005852361675351858], [0.012766066007316113], [0.03533252328634262], [0.023968642577528954], [0.018264081329107285], [0.10503561794757843], [-0.08673737198114395], [0.09050280600786209], [0.06048380956053734], [0.10118498653173447], [0.03380343317985535], [-0.01075947005301714], [0.06333493441343307], [0.037506941705942154], [0.08556845784187317], [0.06681203842163086], [0.04219156131148338], [0.24344022572040558], [0.02224038541316986], [-0.005431614816188812], [0.09173721075057983], [-0.2357894778251648], [0.17661228775978088], [-0.0770053118467331], [0.04474204033613205], [-0.1439383625984192], [-0.10284438729286194], [-0.08163770288228989], [-0.09319163113832474], [0.07294777780771255], [0.018693674355745316], [0.1648000329732895], [-0.058899011462926865], [-0.15297845005989075], [-0.0818566232919693], [-0.06602288782596588], [-0.16575385630130768], [-0.10834290832281113], [-0.024576285853981972], [-0.06411779671907425], [0.17518207430839539], [-0.13282319903373718], [-0.0280363280326128], [-0.06381397694349289], [-0.07933026552200317], [0.03323773667216301], [0.04459679126739502], [0.16550427675247192], [-0.021512312814593315], [-0.03397349640727043], [-0.03536181151866913], [-0.026109756901860237], [-0.038679659366607666], [-0.09703715890645981], [0.24250221252441406], [-0.024455221369862556], [0.2753429412841797], [-0.1275523155927658], [-0.10839858651161194], [-0.17389795184135437], [-0.06257428228855133], [0.163319930434227], [-0.07891286164522171], [0.2887611389160156], [-0.12872923910617828], [0.028242608532309532], [0.06025320291519165], [-0.011784880422055721], [-0.18180519342422485], [-0.02912047691643238], [-0.2437625378370285], [0.04464452713727951], [0.11143246293067932], [-0.07535415887832642], [-0.07071606069803238], [-0.08805638551712036], [-0.12377685308456421], [0.08619870990514755], [-0.015328995883464813], [0.1682160645723343], [-0.10491330921649933], [0.07014032453298569], [0.010284041054546833], [0.0032931321766227484], [-0.04710321128368378], [0.014567889273166656], [0.10659624636173248], [-0.034803323447704315], [0.044691283255815506], [-0.02502654306590557], [-0.005378927569836378], [-0.08492188155651093], [-0.03126439452171326], [0.04612775892019272], [0.04879492521286011], [0.047384802252054214], [-0.06255808472633362], [-0.014522715471684933], [-0.003819481236860156], [-0.004927774891257286], [-0.04967294633388519], [0.04595967382192612], [-0.1750875562429428], [0.038776423782110214], [-0.030861930921673775], [0.16239993274211884], [0.08390049636363983], [0.047423139214515686], [0.10832963138818741], [-0.0022273301146924496], [0.2656768560409546], [0.12048844993114471], [0.0820232406258583], [0.20664659142494202], [0.016065245494246483], [0.030377352610230446], [0.12390182912349701], [-0.05370520427823067], [0.38837143778800964], [-0.059622567147016525], [-0.010565624572336674], [-0.03590621054172516], [-0.09104097634553909], [-0.057382144033908844], [-0.009240665473043919], [-0.0045181820169091225], [0.11855686455965042], [0.13816671073436737], [-0.11696232855319977], [0.14647820591926575], [-0.09543463587760925], [0.002766725840047002], [-0.09824264049530029], [0.0235481895506382], [-0.001558540971018374], [-0.009014835581183434], [-0.05370359867811203], [0.13249821960926056], [0.036928098648786545], [-0.056815255433321], [-0.08892915397882462], [0.14226870238780975], [0.17928068339824677], [-0.03787801042199135], [-0.054984577000141144], [0.3022128641605377], [0.006954163778573275], [-0.13927792012691498], [-0.020519927144050598], [-0.03613375499844551], [0.05285687744617462], [-0.05432184785604477], [-0.08828993141651154], [-0.027510443702340126], [-0.013805038295686245], [-0.04969857260584831], [-0.04958386719226837], [0.015322300605475903], [0.003677344648167491], [-0.07681542634963989], [-0.11811994761228561], [-0.006193989422172308], [-0.01599286124110222], [-0.09244225919246674], [0.0028801588341593742], [0.1069105863571167], [0.09169665724039078], [0.06230127811431885], [-0.048732906579971313], [0.05545942112803459], [0.031054513528943062], [-0.02197813056409359], [-0.041056592017412186], [0.04694534093141556], [0.1973186433315277], [0.011620024219155312], [-0.009113379754126072], [0.1951974481344223], [0.011250068433582783], [-0.02201572060585022], [0.050822410732507706], [0.004790949169546366], [0.27591708302497864], [-0.020442958921194077], [0.01913902908563614], [0.054905567318201065], [-0.007320367265492678], [-0.023525752127170563], [0.009847362525761127], [0.02907339483499527], [0.218902587890625], [0.11254246532917023], [-0.0610630176961422], [0.11592729389667511], [-0.022404944524168968], [-0.06057946756482124], [0.01313629187643528], [0.11681077629327774], [-0.16114923357963562], [0.0034470793325453997], [-0.028551682829856873], [0.11084301769733429], [0.04282161220908165], [0.03408380597829819], [0.05561066046357155], [0.07932247966527939], [0.1499468982219696], [-0.07327336817979813], [0.06351597607135773], [0.1924886554479599], [0.03557559847831726], [0.026885246858000755], [0.10995900630950928], [-0.02690327726304531], [-0.048142172396183014], [0.01847662590444088], [-0.016652731224894524], [0.010456361807882786], [0.016324426978826523], [-0.0737537369132042], [-0.039539139717817307], [0.04014423489570618], [0.17713411152362823], [0.09675033390522003], [0.047088753432035446], [-0.021210679784417152], [0.020740391686558723], [0.02338392101228237], [-0.04184012860059738], [-0.04544968530535698], [-0.20096850395202637], [-0.052257511764764786], [-0.037143927067518234], [-0.12575563788414001], [-0.05938352644443512], [-0.09934674203395844], [-0.014710984192788601], [0.06384669989347458], [0.1626087725162506], [0.1334764063358307], [-0.07831256836652756], [-0.051108893007040024], [-0.09011338651180267], [-0.0872766450047493], [-0.0854056179523468], [0.06371660530567169], [-0.07110317051410675], [-0.008047651499509811], [0.009984781965613365], [0.08467135578393936], [0.051340702921152115], [-0.011659415438771248], [-0.05151244252920151], [0.002729595173150301], [0.21291416883468628], [0.03512512519955635], [0.0358620323240757], [0.0989103838801384], [0.04949142411351204], [-0.04041959345340729], [-0.016351627185940742], [0.07233570516109467], [0.05164632573723793], [-0.058639973402023315], [0.08970648050308228], [0.004012709949165583], [0.014608907513320446], [-0.10173176974058151], [-0.021676557138562202], [0.1914425790309906], [0.04043620079755783], [0.31592798233032227], [-0.0714268833398819], [0.22686640918254852], [0.05923439934849739], [-0.023359742015600204], [-0.050016459077596664], [-0.07722654193639755], [-0.003416835330426693], [-0.08245019614696503], [-0.009338164702057838], [-0.07309762388467789], [-0.10343506932258606], [-0.010418673045933247], [0.03142740949988365], [0.11759202182292938], [0.01418489683419466], [0.06905525177717209], [-0.05484124645590782], [-0.11153987050056458], [-0.08338143676519394], [-0.023251499980688095], [-0.1298230141401291], [0.05880700796842575], [0.07788766920566559], [0.01291978731751442], [0.09289177507162094], [0.109562948346138], [0.049136530607938766], [-0.06095575541257858], [0.0008218289585784078], [0.15543875098228455], [0.10558675229549408], [0.13790519535541534], [-0.00484184455126524], [0.20195840299129486], [0.1062912866473198], [-0.07704634964466095], [-0.0019144050311297178], [-0.15817371010780334], [-0.0871179848909378], [-0.10958515107631683], [0.19121307134628296], [-0.21334294974803925], [-0.1258588284254074], [-0.1767256110906601], [-0.045481227338314056], [0.16868960857391357], [-0.01878437027335167], [0.29706627130508423], [-0.12936680018901825], [-0.2102309614419937], [-0.07634797692298889], [0.015576507896184921], [-0.2456005960702896], [0.07164788991212845], [0.15575821697711945], [-0.0174066424369812], [0.06984420120716095], [-0.045006606727838516], [0.023246033117175102], [-0.07138734310865402], [-0.13805937767028809], [0.21040049195289612], [-0.045498527586460114], [0.23254454135894775], [-0.12325343489646912], [0.18488438427448273], [0.07663160562515259], [0.04611281678080559], [-0.034473322331905365], [-0.39838510751724243], [0.01640099659562111], [-0.16063269972801208], [0.37820684909820557], [-0.2663273811340332], [-0.2004765272140503], [-0.20473310351371765], [-0.07793663442134857], [-0.06257637590169907], [0.00692578312009573], [0.3703010380268097], [-0.07486119121313095], [-0.4629623293876648], [-0.2872522175312042], [-0.1268773227930069], [-0.3186459243297577], [0.2675687372684479], [-0.5455107688903809], [0.13251307606697083], [-0.08031448721885681], [0.09869376569986343], [0.061920370906591415], [0.06566809117794037], [-0.28945061564445496], [0.23772110044956207], [-0.35570910573005676], [0.2059134542942047], [-0.32023438811302185], [0.4485478699207306], [0.23867447674274445], [-0.15786658227443695], [0.2750404179096222], [0.12976320087909698], [0.30717650055885315], [0.11189647018909454], [0.0645897388458252], [0.25357434153556824], [0.0963374450802803], [0.034773170948028564], [0.07826799154281616], [-0.022470509633421898], [0.3510178327560425], [0.2210722118616104], [0.12460865825414658], [0.3614673316478729], [0.009397639892995358], [-0.07430142164230347], [0.1332877278327942], [0.004599105566740036], [-0.3158073127269745], [-0.03490477055311203], [-0.1546589583158493], [0.026969827711582184], [0.03155020624399185], [-0.13910430669784546], [-0.09765691310167313], [0.02258668653666973], [0.146635502576828], [-0.034402184188365936], [-0.015573961660265923], [0.0882481262087822], [-0.04453427344560623], [-0.14111582934856415], [-0.0987120121717453], [-0.029024463146924973], [0.18872866034507751], [-0.04560362547636032], [0.022275570780038834], [-0.06435636430978775], [-0.048564232885837555], [-0.10888843983411789], [-0.045025475323200226], [0.15724000334739685], [0.2749733030796051], [0.24026042222976685], [-0.04139044135808945], [0.1706521362066269], [-0.12669667601585388], [-0.0922280102968216], [-0.12051697075366974], [0.03411572799086571], [-0.07479789108037949], [-0.058378349989652634], [-0.07951638102531433], [-0.027821959927678108], [-0.08350986242294312], [-0.0807623341679573], [-0.07802890986204147], [0.04153703525662422], [0.10608331114053726], [0.12872180342674255], [-0.029015807434916496], [0.16680315136909485], [-0.02129635028541088], [0.007540520746260881], [-0.08086785674095154], [-0.054913200438022614], [-0.1331299990415573], [-0.017185945063829422], [-0.027558185160160065], [-0.0024771648459136486], [-0.023125549778342247], [-0.09335732460021973], [-0.011311345733702183], [0.037510622292757034], [-0.05778185650706291], [0.02329290471971035], [-0.0672486275434494], [0.01100673247128725], [-0.03316061198711395], [-0.025154132395982742], [-0.0638841912150383], [-0.027189359068870544], [-0.19659186899662018], [-0.02074628695845604], [-0.05242374539375305], [0.07553950697183609], [0.03804304078221321], [-0.002453257329761982], [-0.07600119709968567], [0.12108983099460602], [0.08330093324184418], [0.11815541237592697], [0.020104892551898956], [0.028675109148025513], [0.008244355209171772], [0.048774074763059616], [-0.04877074807882309], [0.03472660854458809], [-0.3195990324020386], [0.02096998691558838], [0.016934745013713837], [-0.005101713817566633], [0.03786516189575195], [-0.02137806825339794], [0.029936572536826134], [0.029553059488534927], [0.1330370157957077], [-0.04840858653187752], [0.019212616607546806], [-0.14016152918338776], [-0.0012966986978426576], [0.12393251061439514], [-0.01747010461986065], [-0.015630997717380524], [-0.24073275923728943], [0.01931762509047985], [0.018413104116916656], [0.07325471192598343], [0.0002118684205925092], [-0.004245702642947435], [0.03667696937918663], [0.027807703241705894], [0.1106451228260994], [-0.12389304488897324], [0.054262202233076096], [-0.12941031157970428], [0.08014310151338577], [0.06787554919719696], [0.01689273677766323], [0.023336948826909065], [-0.31038546562194824], [0.020988818258047104], [-0.03594585508108139], [0.04005361348390579], [-0.04764839634299278], [-0.0410570465028286], [0.009959916584193707], [0.019046954810619354], [0.027578512206673622], [-0.06261199712753296], [0.012542570009827614], [-0.1284485012292862], [0.05724939703941345], [0.010461682453751564], [0.015066159889101982], [0.10667607933282852], [-0.21715788543224335], [0.03221653029322624], [0.05914606526494026], [0.09136814624071121], [0.11212575435638428], [0.002844959730282426], [-0.011313729919493198], [0.04267146810889244], [0.08616756647825241], [-0.08289351314306259], [0.008937367238104343], [0.009588797576725483], [0.04347238317131996], [0.012689793482422829], [0.029556483030319214], [-0.01056944765150547], [-0.24906060099601746], [0.01290652621537447], [-0.04863063991069794], [0.05199797451496124], [0.02645435370504856], [-0.04681327939033508], [0.02630455791950226], [-0.08477374911308289], [-0.0782337412238121], [-0.047035422176122665], [0.028394311666488647], [-0.1589699536561966], [0.027518006041646004], [-0.03903641924262047], [-0.04728073254227638], [-0.04111228883266449], [-0.3289772868156433], [0.026427192613482475], [0.026036910712718964], [0.01037550438195467], [-0.037849996238946915], [-0.03985005244612694], [-0.030829431489109993], [0.055160291492938995], [0.04028291627764702], [-0.07958298921585083], [0.00861470028758049], [-0.12202611565589905], [0.005445811897516251], [-0.012009124271571636], [0.0006138726021163166], [0.034250933676958084], [-0.14167124032974243], [-0.024931127205491066], [0.040642090141773224], [0.08593837171792984], [-0.00790896825492382], [-0.026888592168688774], [0.011499276384711266], [0.10959751904010773], [0.05949733033776283], [0.07499592006206512], [0.03110826574265957], [0.026637407019734383], [0.0869942158460617], [0.008429517969489098], [-0.009156985208392143], [-0.06979702413082123], [-0.019644366577267647], [-0.07641064375638962], [0.033497314900159836], [0.007834739051759243], [-0.002648472785949707], [-0.04648325592279434], [0.07164700329303741], [0.022103017196059227], [0.118573859333992], [-0.013210308738052845], [-0.03712891414761543], [-0.15886043012142181], [-0.0449385829269886], [0.027550851926207542], [-0.12306872010231018], [0.02550232969224453], [-0.10002565383911133], [-0.0008504236466251314], [-0.14754652976989746], [0.06645431369543076], [-0.0004836588050238788], [-0.039504870772361755], [-0.010542060248553753], [-0.09865807741880417], [0.031915824860334396], [0.14539940655231476], [-0.029748493805527687], [0.06868301331996918], [-0.04783967137336731], [0.030697612091898918], [-0.011613158509135246], [-0.009459230117499828], [-0.056042179465293884], [0.011568493209779263], [-0.3154960572719574], [0.19931823015213013], [0.022899750620126724], [-0.11006654798984528], [-0.03979044780135155], [-0.4908510744571686], [0.43898388743400574], [0.04765213653445244], [-0.06340187788009644], [-0.12601131200790405], [-0.27099958062171936], [-0.059035636484622955], [-0.11911144852638245], [-0.01494227722287178], [-0.37252870202064514], [-0.17619408667087555], [0.09224014729261398], [0.028285320848226547], [-0.11330412328243256], [0.01881301961839199], [0.06340909004211426], [0.1263873279094696], [-0.06231578812003136], [0.2693365514278412], [-0.10062430053949356], [0.003764704568311572], [-0.0704779252409935], [-0.17041164636611938], [-0.14895713329315186]], "dense_bias": [0.029217587783932686]}